   2.0591656e+01
  -2.3401059e-01
   4.3171760e-02
  -1.7313578e-03
   6.8888023e-01
  -7.4352219e-01
  -1.1958478e+00
  -3.6013659e-02
   1.2832682e-01
   1.2704428e+00
  -6.7220085e-01
   1.9124958e-01
  -1.2421659e-02
  -2.0303766e+00
   2.7535300e-01
   1.3303390e-01
   3.6963398e-03
  -7.2744380e-01
  -2.9309054e-01
  -6.1762126e-01
   9.5571616e-01
   4.4744363e-01
   1.8180311e+00
   1.2185677e+00
   1.2102519e-01
   2.1219475e+00
   5.6833644e-01
  -2.6559645e+00
   8.5794504e-02
   1.6151192e+00
   2.2328613e-01
  -1.1635790e+00
   7.6932728e-01
   2.5428948e+00
  -1.3557076e-01
  -1.3659679e+00
   1.5518576e+00
  -7.4949813e-02
  -1.1798737e+00
   4.7826780e-03
  -7.6643382e-01
   5.7337322e-01
   1.6095558e+00
   2.3624793e+00
  -1.0442881e+00
  -3.7866021e+00
  -8.2154551e-02
   1.6160976e+00
  -5.6371430e-01
   1.0495843e+00
  -6.0878240e-01
  -1.4693246e+00
   6.7469410e-01
   4.3394755e-01
   5.5508319e-01
  -5.1516507e-02
   2.4885313e+00
   2.4894208e+00
   1.4503216e-02
   6.7340192e-02
  -1.8614542e+00
  -7.3088747e-02
  -1.7020588e+00
   1.1171821e+00
   1.7260090e-01
   1.8893223e+00
  -2.4480425e+00
  -7.8414159e-01
   1.2281386e+00
   2.3618003e+00
  -4.2980735e-01
   1.6033462e+00
  -1.1455668e-01
   2.2919663e-01
  -5.6713462e-01
   1.1356679e-01
  -2.5377248e-03
  -1.4584907e+00
   1.2304515e-01
   5.1647946e-01
  -1.8163850e-01
   1.1534014e-02
  -8.9356914e-01
   1.1744395e+00
  -7.5372388e-02
   2.3721066e+00
   2.4759275e-01
  -5.1985149e-02
   7.5026871e-02
   2.1918491e-02
   1.0225601e-02
   3.6058243e-01
   1.2069501e-02
  -1.6029749e-03
  -2.9276892e-01
  -1.5826207e-04
   4.1014336e-03
   3.1387590e-01
  -6.1279507e-02
   4.4778037e-03
  -1.8415431e-01
   4.2934189e-02
  -1.2910996e-03
  -2.4763986e+00
   5.1632735e-01
  -3.3834678e-02
   1.3401971e+00
  -2.7626786e-01
   1.7881951e-02
   1.1283635e+00
  -2.0688995e-01
   7.6981412e-03
   5.9667784e-01
  -8.5940013e-02
   3.5700984e-03
   8.6452155e-02
  -2.4610610e-02
  -8.8437626e-04
  -1.4188761e+00
   1.4120685e-01
  -6.1677304e-04
   1.0004912e+00
  -9.5985818e-02
  -2.6420340e-03
   1.3852212e+00
  -8.4798012e-02
  -1.7209583e-03
   1.2116092e+00
  -1.4813249e-01
   5.4243773e-03
  -1.3474700e+00
   1.4307919e-01
  -6.4692914e-03
   2.3506190e-01
  -2.4526495e-01
   2.5258044e-02
  -4.2685409e-02
  -5.0190157e-03
  -4.1255572e-03
   3.4235389e-01
  -1.9848222e-02
   8.4292619e-04
  -1.7616348e+00
   2.7158981e-01
  -1.5384420e-02
   5.2052875e-01
  -2.2426206e-03
  -5.2293325e-04
  -8.5251868e+00
  -3.8407944e+00
  -3.8502428e+00
   1.2602149e+00
   5.1329779e+00
  -1.2719139e+01
   4.4923527e-01
   3.1770311e-01
   1.0868423e+00
  -2.1494159e+00
   5.5119684e+00
  -5.2833502e+00
   2.4070898e+00
  -6.1105606e-01
   8.8121822e-01
   4.0978497e+00
   3.8599434e+00
  -4.5109932e+00
   4.9517009e-01
  -7.7036298e-02
   3.2216023e-03
   9.7698774e-01
   3.3051065e-01
   1.2246696e+00
  -1.9307900e+00
  -2.9710745e-01
  -2.2924715e+00
   1.2992253e+00
   3.5871908e-03
  -5.9682604e-01
  -5.3183356e-01
   3.7066750e+00
  -3.5097414e-01
   1.5800643e+00
  -3.2714324e+00
  -3.1741907e+00
   1.1935847e+00
  -4.3136064e-01
   3.6359004e-01
   1.5901482e+00
  -1.6311164e+00
  -4.1900509e+00
  -9.6991252e-01
  -1.5864985e+00
   9.3059555e-02
  -1.1685379e-02
  -2.6512783e+00
   1.1646624e+00
  -3.4043656e-02
  -1.0009891e+00
  -1.0655252e+00
  -1.7150324e+00
  -1.5110367e+00
   1.1902124e+00
   1.6876009e+00
  -3.9727930e-01
  -1.7551160e+00
  -1.5617276e-02
   5.5088086e-01
  -4.3451242e+00
  -1.1716811e-01
  -3.3466906e+00
  -2.2172037e+00
  -1.6255601e+00
   8.5026422e-01
   4.4795313e-02
   1.0193849e+00
  -4.6551809e-01
  -1.8002073e+00
  -8.1225969e-01
  -4.0140195e-01
  -1.5794875e+00
  -2.1107576e+00
  -1.1541007e-01
   1.5874933e-01
  -1.1737368e+00
  -8.9969209e-01
  -3.3950170e+00
  -3.5252976e-01
  -2.0724598e+00
   4.5012844e-01
  -3.1269668e-01
   4.9609555e-01
  -1.8291595e+00
  -2.1841639e+00
  -3.8766889e-01
   3.0040634e+00
  -4.4924123e-01
  -4.1110018e-01
   4.8405097e-02
  -1.8156949e+00
  -1.7153616e+00
   1.8561483e-01
  -3.9310995e-01
  -1.1795488e+00
   1.1740056e-01
  -8.8663597e-01
  -2.0525055e+00
   1.8643928e-01
   2.2339709e-01
  -6.5788556e-01
   2.3347292e-02
  -1.8237306e-01
  -6.1071626e-01
  -1.9743327e-01
  -2.1935245e-01
   4.8435928e-02
  -6.3563530e-04
  -6.1243207e-01
   3.3060435e-02
  -1.3176906e-03
  -1.2129057e-01
  -3.5815674e-02
   3.1678673e-04
  -2.5857830e-01
   2.9750867e-02
   8.3133060e-04
  -3.4908541e-01
   3.8286836e-02
  -1.5853192e-03
  -1.3242330e+00
   1.4623971e-01
  -9.6277120e-03
  -6.1300707e-01
   6.9896250e-02
  -1.8763912e-03
   2.3000515e-01
  -1.3365809e-01
   7.4492800e-03
   7.2494544e-01
  -7.0717980e-02
   4.4103625e-03
  -6.8685052e-01
   1.0969153e-01
  -6.9362500e-03
  -1.5265085e+00
   2.0098130e-01
  -9.7455008e-03
   1.6904611e+00
  -1.4929561e-01
   4.1981839e-03
   1.8846777e+00
  -2.1573039e-01
   9.0144355e-03
   5.0311326e-01
  -8.1649498e-02
   5.7282870e-03
   3.0137293e-01
   3.2545984e-02
  -2.9755936e-03
  -9.2877284e-02
   5.2574165e-02
   3.4006779e-03
  -6.6391181e-01
   1.8673902e-02
  -1.7655682e-03
  -9.1939588e-02
   1.4514941e-01
  -7.1426023e-03
  -4.6087790e-01
  -1.0960145e-01
   6.7136158e-03
   1.4471677e+00
  -2.7867515e-01
   1.9363518e-02
   1.3195028e+01
   8.0720319e+00
  -6.5627542e+00
  -1.4697315e+01
   1.2948773e+01
  -2.0786595e+00
  -1.2243327e+00
  -4.3610236e+00
   2.5875782e+00
  -4.0607856e+00
   7.8213618e+00
  -5.3880616e+00
   2.6726676e-01
  -4.9451267e+00
  -7.6602884e-01
   5.8926764e+00
  -1.0116650e+00
   3.8642783e+00
  -1.1624785e+00
   1.1515938e-01
  -3.2030849e-03
  -8.1050172e-01
   1.8151622e+00
   1.0814006e-01
  -6.4942738e-01
  -1.0680477e+00
   2.6326831e+00
  -8.3205112e-01
  -2.0762159e+00
   2.3427347e+00
   1.1436399e-01
  -2.2612269e+00
  -1.4238476e+00
   1.4388774e+00
   2.0167365e-01
  -1.5581008e+00
   6.5616358e-01
   2.5486059e+00
  -2.2969740e+00
   4.3902321e-01
   1.6993134e-01
  -3.2341810e-01
  -1.0073134e+00
  -5.1619064e-01
   1.3380132e+00
   1.9126960e-01
  -1.1553689e+00
  -1.7767734e-01
  -8.2929861e-01
   1.4503229e-01
   9.1433133e-01
   1.2043224e-01
  -2.1202760e-01
   4.9040869e-02
   8.9588207e-01
  -1.1744474e+00
  -1.7213291e+00
  -1.0675074e-01
   2.7948271e+00
  -2.0607641e+00
   9.7684652e-01
   1.3909284e+00
  -1.5355901e+00
   6.2421046e-01
   2.0443567e+00
  -9.9592250e-01
   3.7222639e-02
   7.7779370e-01
  -1.1783235e-01
  -1.5111262e+00
  -1.0954403e+00
   1.4243388e+00
  -9.8881010e-01
  -1.2433764e+00
  -1.0968449e+00
   1.4868498e-01
  -2.2794085e+00
  -9.0885443e-01
   4.1761539e-01
  -1.4967685e+00
  -1.5585424e+00
  -6.8789000e-02
  -2.1525978e-01
  -1.3942205e+00
  -8.5579744e-01
  -2.4017840e+00
   1.6144883e+00
  -2.9246040e-01
   3.9180357e-01
  -3.4331601e-02
  -9.6634355e-01
  -2.1048732e+00
   2.0085079e-01
   9.6621130e-02
  -1.2420847e+00
   1.2685351e-01
  -6.6045483e-01
  -9.7631883e-01
   6.9748550e-02
  -2.4356986e-01
   1.7613647e-01
  -1.9915769e-02
   4.4393003e-01
  -5.3973601e-01
  -1.0167967e-01
   9.5398029e-01
  -2.9420332e-01
   3.3446527e-02
  -6.2407173e-01
   1.4467975e-01
  -8.1433604e-03
   9.9551400e-01
  -1.0589063e-01
   5.3455745e-03
  -1.7078872e+00
   1.8310241e-01
  -2.8771189e-03
   2.4135602e-01
   2.2445183e-02
  -1.8976106e-03
   7.0063624e-01
  -2.3909179e-02
  -5.5381136e-03
   9.4412980e-01
  -2.7883174e-01
   1.0368910e-02
   7.9600973e-02
  -3.8198585e-02
   1.5099857e-03
   4.1554318e-01
  -7.4517145e-02
   7.2172611e-03
  -8.0824184e-01
   2.6997593e-01
  -1.2508333e-02
  -1.5848222e+00
   1.6065098e-01
  -1.6248200e-03
  -9.5969160e-02
  -1.3574548e-02
   3.1694162e-03
   7.2297299e-01
  -2.9356880e-02
  -7.4479462e-03
   1.0194793e+00
  -1.5918049e-01
   6.5002230e-03
  -6.3512733e-01
   1.1930800e-01
  -6.1258377e-03
  -9.1839416e-01
   6.6648756e-02
  -4.8777310e-03
   4.4549388e-01
  -9.7385891e-02
   1.2822489e-02
   6.7365716e-01
  -6.2436338e-03
  -1.0877621e-03
  -1.1238611e+00
   1.4119736e-01
  -5.0611706e-03
   4.6791698e-01
  -1.9851725e-01
   1.0882879e-02
   5.0294677e+00
   8.2749571e+00
  -5.0525006e+00
  -1.1388763e+01
   9.1710696e+00
  -9.9583328e+00
  -2.2171096e+00
  -6.9730983e-01
   1.6652802e+00
  -3.3043062e+00
   2.5407726e+00
  -4.7300949e-01
  -9.0396589e-02
  -3.6491991e+00
   3.0434872e+00
  -5.6234238e+00
  -1.6705993e+00
   4.0739843e+00
  -5.2185376e-01
   5.9698659e-02
  -1.9071823e-03
   4.7659580e-01
   3.4353998e-01
  -1.0272185e+00
  -3.6109690e-01
  -5.6711922e-01
   7.7927229e-01
  -3.3154641e-01
  -2.2601322e-01
  -8.0769242e-02
  -1.0875189e+00
   2.9860244e-01
  -2.5380791e-01
   1.7452512e+00
  -7.1116654e-01
  -1.6290704e+00
   4.2383576e-01
   3.0867800e-01
  -1.7622463e-01
   1.6655653e+00
   2.9613016e-01
  -1.0389650e+00
  -1.3111565e-01
   2.8342105e-01
  -1.2886793e+00
  -1.5498563e+00
   9.6876319e-01
   5.4608081e-01
  -5.9932715e-02
   7.8052515e-01
  -2.2629367e+00
   1.8061706e-01
   2.7744452e-01
   1.1911717e+00
  -6.0443984e-01
  -1.7928193e+00
  -4.1111477e-03
   1.5891121e+00
   5.6911079e-01
  -2.1341011e+00
   1.1606724e+00
   8.1380089e-01
   4.2602528e-01
  -7.0881683e-02
   8.3944267e-01
   6.2111914e-01
   1.1902086e+00
   7.0260825e-01
  -1.6262755e+00
  -4.2758043e-01
  -7.3608657e-01
  -6.4287215e-01
  -2.4114602e+00
  -1.5545550e-01
   2.9034545e+00
   1.0399536e-01
  -8.6415555e-01
  -3.6467349e-02
  -1.0667367e-01
  -2.2341872e-01
  -1.1875797e+00
  -1.3256538e-01
  -1.5579137e-01
  -5.6104256e-01
  -3.8760860e-01
   3.5439120e-01
   1.8304789e+00
  -5.6239107e-01
  -4.5501302e-01
   2.0526400e-02
  -1.0075301e-01
  -2.4815852e+00
   2.6915539e-01
   2.8670104e-01
  -1.4186621e+00
   1.1542637e-01
  -1.0994603e+00
   4.2855569e-01
  -4.3528874e-02
  -1.2629619e-01
   7.4212198e-01
  -8.0344203e-02
   1.4924998e+00
  -1.1490935e-01
  -1.0163087e-01
   1.0673896e+00
  -3.8474287e-01
   4.2236557e-02
  -2.6800070e-01
   4.1870198e-02
  -2.7965468e-03
  -5.4910247e-01
   8.7238589e-02
  -6.6922887e-03
   1.4046979e+00
  -2.0169733e-01
   1.1872221e-02
  -4.5974279e-01
   4.3657698e-02
  -2.0445728e-03
  -6.6463632e-01
   1.1043886e-01
  -1.4198955e-02
  -1.1597826e-01
  -2.2147649e-02
  -3.8121012e-03
   1.5204994e-01
  -2.4522297e-02
   6.8632336e-04
  -1.6781447e-01
  -5.6787943e-02
   7.6454235e-03
  -3.7532472e-01
  -1.8994531e-01
   1.7864031e-02
  -8.3544091e-01
   2.9451318e-01
  -1.8765594e-02
   1.3873764e+00
  -3.0166927e-01
   2.2661537e-02
  -5.3183777e-01
   2.8869468e-01
  -1.9479159e-02
   1.6743110e+00
  -1.9384642e-01
   8.1283735e-03
  -7.8492793e-01
   1.5086913e-01
  -5.7409681e-03
  -3.6566406e-01
   2.5367490e-01
  -2.3116671e-02
   1.0711661e-01
  -1.0776538e-01
   1.4923540e-02
   1.7397313e-01
  -3.0083969e-02
   4.5215692e-04
   2.2696499e-01
  -5.2440955e-03
  -1.8254051e-03
   6.8057385e-01
  -8.6873424e-02
  -6.9417725e-04
  -2.3838296e+00
   4.9993875e+00
  -7.6050458e+00
  -3.7008656e+00
   1.0487286e+01
  -1.1643757e+01
  -2.8663964e+00
   1.8065319e+00
   2.4352634e-01
   2.8792674e-01
   1.4103689e+00
  -3.5744055e+00
  -9.1844129e-01
   1.1133119e-01
   5.6302721e-01
  -4.4305320e+00
  -1.1434831e+00
   4.1420366e-01
   6.2393216e-01
  -7.3484374e-02
   2.4237573e-03
   1.9650172e-01
   1.9732756e-01
   2.0979616e-01
  -9.1401572e-01
  -2.5305463e-01
   1.7164231e+00
  -1.5888661e+00
  -1.4722186e-01
   1.2632648e+00
   1.3304419e+00
  -7.9502249e-01
  -3.4860598e-01
   2.6484972e+00
   8.6015102e-01
  -1.7574987e+00
  -9.4346560e-01
   8.6606093e-01
   6.9206777e-01
  -7.8827938e-01
  -1.1467684e+00
   1.0317059e-02
  -1.1696256e+00
   1.3996433e+00
   1.1937779e+00
   3.6117000e-01
  -7.6975184e-01
   5.8307480e-01
   9.2147336e-01
   2.3114025e-01
  -2.7733726e+00
  -1.9571820e+00
   1.0949284e+00
   3.2846165e+00
  -6.4211522e-01
  -3.2205945e+00
   5.7023731e-01
  -8.4471257e-01
   1.9114846e+00
   1.0061464e+00
   1.3939632e+00
   1.5880749e+00
  -1.2970652e+00
  -8.1963105e-01
   2.2941068e+00
   7.9992208e-01
  -2.8865776e-01
  -1.4490935e-01
  -3.8120966e-01
  -1.1616937e-02
   1.0329050e+00
  -5.6206854e-01
  -3.4550143e+00
  -6.0569598e-02
   1.9006955e+00
   9.8459594e-01
  -1.5952036e+00
  -4.6207937e-01
   4.7009778e-01
  -1.4927501e+00
  -7.8962273e-01
  -3.8996995e-02
  -3.8956993e-01
   3.1231866e-01
  -1.5297176e+00
  -3.7508353e-01
   1.8752872e+00
   6.9572710e-02
   5.3497546e-01
  -3.9592153e-02
  -1.9600621e-01
  -1.1391884e+00
   3.7459299e-02
  -6.2200678e-01
  -5.3547698e-03
   5.9032743e-03
  -1.6639832e-02
  -4.5839223e-01
   4.0210537e-02
  -3.3433482e-01
  -5.9265574e-01
   6.2742058e-02
   9.8245944e-01
  -2.1483366e-01
  -1.8159971e-02
  -5.2878828e-01
   8.3892028e-02
  -8.5931316e-03
  -5.1263215e-02
  -7.0078845e-02
   6.8073480e-03
   5.7371254e-01
  -8.3727012e-02
  -2.0593834e-04
  -5.0385024e-01
  -1.0473630e-03
   2.6334178e-03
  -1.0481987e-01
   2.7871876e-02
  -2.0675502e-03
   7.2808743e-01
  -7.4562740e-02
  -1.5611579e-03
   8.4753015e-01
  -1.0224530e-01
   6.5370179e-03
   4.6920219e-01
  -1.1534934e-01
   9.8740742e-03
  -3.5915752e-01
   8.9228626e-02
  -4.9944124e-03
  -3.8818425e-01
  -1.0361563e-01
   1.3518870e-02
   3.3334792e-01
  -9.4534823e-03
  -2.4722251e-03
  -8.6459410e-01
   8.0292222e-02
   6.7769031e-04
  -9.9974406e-01
   2.9520721e-01
  -2.1502285e-02
  -5.8920315e-01
   1.9811561e-01
  -8.6008441e-03
  -2.8733371e-01
   7.4042601e-02
  -2.7241316e-03
   2.0152434e-01
  -2.4705056e-02
  -6.1787170e-03
  -2.8031840e-01
   1.5049968e-01
  -4.6509377e-03
   6.9151688e-01
  -2.4969887e-02
  -6.4117583e-04
   5.7755239e-01
  -2.9551741e-01
   1.6182196e-02
   1.4266243e+00
  -1.6838140e-01
   5.0747497e-03
   3.9958812e+00
   5.9398000e+00
  -9.5526584e+00
  -3.4401008e+00
   1.3292379e+01
  -7.7297369e+00
   1.2238781e-01
   1.5825617e+00
  -1.0243283e+00
  -2.5345466e+00
   8.0186548e+00
  -5.8404270e+00
  -3.6795505e-01
   4.2906212e+00
  -4.6195398e+00
   5.3937468e+00
  -9.0692573e-02
  -1.0986970e+00
   4.3431549e-01
  -6.8206336e-02
   2.5691698e-03
   6.2886855e-01
  -5.7782724e-01
  -2.9728798e-02
  -2.2486891e+00
  -4.2618900e-01
  -6.1190106e-01
  -3.2141135e-01
   7.3570532e-01
  -7.7301108e-01
  -1.5854369e+00
   3.5064008e+00
  -4.1667750e-01
   9.8968289e-01
  -2.1602498e+00
  -1.6876810e+00
   1.3200182e+00
   3.3904203e-01
  -6.2105965e-01
   4.9693216e+00
  -1.5535598e+00
  -4.1794175e+00
  -2.2993954e+00
   6.9746862e-01
   1.2206016e+00
   3.7116122e-01
  -7.6107723e-01
  -1.4222142e-01
  -1.5428155e+00
   7.4466355e-01
   1.1718044e+00
  -2.2164820e+00
   1.2432232e+00
   2.1409024e+00
  -1.1273201e-01
  -1.2609613e+00
  -7.1426718e-01
  -9.6347029e-01
   1.2274990e+00
   6.3990109e-02
   7.0241828e-01
  -2.0953737e+00
  -2.2129543e+00
  -3.5083616e-01
   2.6652871e-01
   7.9748405e-01
   6.1483724e-01
   2.4272304e-01
  -2.1738320e+00
  -2.2025581e-01
  -1.3600792e+00
  -1.8715157e+00
  -3.9743224e+00
  -1.3984845e+00
   4.7333433e+00
  -7.5637765e-01
  -3.0890376e+00
  -1.5031878e+00
   1.1604683e+00
   1.8849210e-01
  -3.6125285e+00
   3.5449004e-01
  -1.0617842e+00
  -1.0102710e+00
  -1.4251858e+00
  -1.0722507e+00
   1.9899181e+00
  -3.9241964e-01
   2.1392425e-01
  -1.5259196e-02
  -1.4856523e+00
  -2.6357923e+00
   2.5964143e-01
  -8.2272940e-01
  -4.1922895e-01
   4.0184786e-02
  -6.4979315e-01
  -1.8914203e+00
   1.6231524e-01
  -4.1976437e-01
  -8.0407422e-01
   7.2369686e-02
   7.2156961e-01
   3.2392390e-01
  -5.2828938e-02
  -4.6869851e-02
  -2.7556058e-02
   1.5374381e-02
  -1.0111701e+00
   1.2888494e-01
  -5.6476974e-03
   9.2946734e-01
  -5.9396377e-02
  -7.3719984e-03
   8.6070332e-01
  -2.1802899e-01
   1.4619474e-02
  -1.0099906e+00
   9.2562898e-02
  -3.7957204e-03
  -1.0884978e+00
   2.4166607e-01
  -1.8985677e-02
  -1.8442127e-01
   6.8742107e-02
  -5.7803261e-03
  -3.5731995e-01
   4.2482787e-02
  -3.1484746e-03
   3.6450302e-02
  -5.6409161e-02
   5.9921651e-03
   5.1642474e-01
  -3.6111101e-02
   2.4537338e-03
  -7.5224758e-02
   6.1833978e-02
  -5.6808006e-03
   1.1459356e+00
  -3.3230897e-01
   2.7067904e-02
   2.0059583e-01
  -1.3436816e-02
  -3.6596268e-03
  -2.3814526e-01
  -2.2932357e-02
   4.5945250e-03
   9.9918445e-01
  -1.7341420e-01
   5.6384550e-03
   1.6322565e-02
   7.1548304e-02
  -5.0065906e-03
  -3.7792913e-01
  -4.6026667e-02
   8.9814626e-03
  -2.8489235e-02
   1.1109407e-01
  -5.2974267e-03
  -3.9336586e-01
   6.2924850e-02
  -8.0531114e-04
   1.0284517e+00
  -2.7995926e-01
   1.6472358e-02
  -5.0151909e+00
   7.1526726e+00
  -7.6176680e-01
  -7.3060662e-02
   1.1243833e+01
  -9.9619319e+00
   8.2152977e-01
   1.9764239e+00
  -6.5275814e-01
  -1.8527150e+00
   4.0715625e+00
  -5.3514228e+00
  -2.8707337e+00
   3.6756396e+00
  -2.3884651e+00
   6.6197738e-01
  -2.2572636e-01
   3.8180911e-01
   4.2980288e-01
  -3.7384594e-02
   1.0164813e-03
   1.5510691e+00
  -7.8829693e-01
   7.0146385e-01
  -5.4064829e-01
   6.2671768e-01
  -4.1891860e-01
  -8.9643324e-01
   1.7024630e-01
  -4.6780835e-02
   1.0657260e-01
  -8.9348069e-01
  -1.4202064e+00
   7.5396469e-01
  -5.4740836e-01
  -1.5586652e-01
  -6.3562299e-01
  -2.4463350e-01
   3.2159681e-01
  -1.6050702e+00
   5.0760243e-01
   3.0933054e-01
  -1.3840114e+00
  -1.0900937e+00
  -1.3654926e+00
   1.1273544e+00
  -8.4052621e-01
  -1.7538399e+00
   1.8933715e-01
   3.6365747e-01
  -7.8343102e-01
   3.1782178e-01
   6.2482710e-01
  -1.1407376e+00
  -3.9597923e-01
  -9.7011815e-01
  -3.0129680e-01
   1.2711048e+00
   1.6109415e+00
  -3.6385730e+00
   2.0879235e+00
   5.7214430e-01
  -3.0481563e+00
  -1.5021544e+00
   6.0960618e-01
   2.7246257e+00
  -1.1667570e-01
  -1.5680626e+00
  -6.7069047e-01
  -3.9377044e-01
  -8.8095229e-01
  -2.6821635e+00
  -2.6443309e+00
  -1.6724548e+00
   2.3991535e+00
   2.6125632e-01
  -3.5369668e+00
  -5.3124444e-01
  -3.1683587e-01
  -1.0548081e+00
   4.5447844e-01
  -1.0389778e+00
  -7.9404418e-01
  -3.7358563e-01
  -1.5920126e-01
  -3.6413008e-02
   8.2280825e-01
  -1.3313978e+00
   9.4967200e-02
  -1.0723547e-02
   1.1231519e-01
  -1.0995432e+00
   9.6230668e-02
   1.9034273e-01
  -1.0424146e-01
   3.5917631e-02
  -9.1806069e-01
  -6.8193171e-01
   6.7527209e-02
  -1.1265006e+00
  -3.9389031e-01
   4.3700744e-02
   3.4643360e+00
   1.0794038e+00
   5.3799001e-02
  -7.7037925e-01
   6.8539389e-02
  -1.2935531e-03
  -9.8891632e-01
   2.2983099e-01
  -1.1062689e-02
   3.9196279e-01
  -1.7868025e-01
   1.3140101e-02
  -4.9788510e-01
   1.0647718e-01
  -3.6594114e-03
   6.3468550e-01
  -4.1479085e-02
   6.3527081e-04
   1.6447743e+00
  -2.3106188e-01
   8.2481751e-03
  -3.4625675e-01
  -9.6647320e-03
   1.1141260e-03
   5.9114667e-01
  -9.0201310e-02
   4.4534046e-03
  -2.5615913e-01
  -2.3264886e-05
  -1.5101921e-04
   7.9197303e-01
  -7.2656162e-02
  -2.3442686e-03
  -1.3209666e+00
   1.8637576e-01
  -8.7890599e-03
   1.1317035e-01
  -5.5496907e-02
   3.7441545e-03
   8.7058699e-01
  -2.4790709e-02
  -2.3229185e-03
   1.0891828e-01
   2.9145714e-03
  -2.3966285e-03
   3.2451134e-01
  -7.6833968e-02
   3.5556240e-03
   6.7110884e-02
  -1.8404041e-02
  -5.7366224e-03
   2.5061373e-01
   1.4523923e-01
  -1.1211169e-02
  -4.4488586e-01
  -6.2365556e-03
   4.4575884e-04
  -3.2490245e-01
   1.4786718e-01
  -7.3678931e-03
  -9.2119166e-02
  -1.6968402e-01
   2.4258234e-02
  -6.9590128e+00
  -9.0798745e-01
  -4.0579565e+00
   8.0501037e+00
   4.5886948e+00
  -1.7091039e+01
  -2.6821795e+00
  -4.9979230e+00
   2.9301143e+00
  -5.0411275e-01
  -2.8476066e+00
   5.5506398e+00
   6.1887408e+00
   2.3001460e+00
  -2.5285145e+00
  -2.5271095e+00
   7.6864956e+00
  -6.4299516e+00
  -5.6652183e-02
   3.7624125e-02
  -1.9688296e-03
   3.0283728e-01
  -1.2867950e+00
   8.1498333e-01
  -7.4958840e-02
   1.2193416e+00
   1.3479716e+00
  -1.4433939e+00
   6.1221807e-01
   1.1617150e+00
   6.3743950e-01
  -2.3910730e+00
  -2.5860519e+00
   5.4045645e-01
   1.0570705e+00
  -1.6171680e-01
   7.2010357e-02
   1.1400092e+00
  -1.0485208e+00
   5.4173731e-01
   1.1118920e+00
   1.3340489e+00
   9.4857234e-01
   1.5321368e+00
  -2.8322602e+00
   4.2367656e-01
   9.2662670e-01
  -7.6443802e-01
  -2.6018070e+00
   1.5478880e+00
   3.6326084e+00
  -5.0685284e-01
  -7.2906231e-01
   1.9890351e+00
  -2.8448995e+00
  -4.9059317e-01
   2.8141968e+00
   3.2508124e+00
   3.7545477e-01
  -3.9933506e+00
   4.5297940e+00
   9.4778924e-01
  -4.4552123e+00
   4.9802897e-01
   1.3742044e+00
   9.6744010e-01
   6.8648881e-01
  -6.8313364e-01
  -8.5312354e-01
   8.1232706e-01
  -1.0011012e+00
   3.5426832e-01
  -1.3723155e+00
   1.5031699e+00
   2.3655738e+00
   2.7919957e+00
  -2.0290266e-01
  -3.3830655e+00
  -1.8659730e+00
   5.2449943e-01
   4.9155497e-01
   7.2522091e-01
   1.2080926e-01
   7.5473854e-01
  -1.6883924e+00
   1.0079520e+00
   3.7643314e+00
  -1.0117485e+00
   3.9650721e-01
  -3.7017078e-02
   1.2682474e+00
   1.9358122e-01
  -1.6280618e-02
   4.3568059e-03
   4.7003342e-01
  -5.0249901e-02
  -1.9692640e-01
   1.4549942e+00
  -1.1616202e-01
   4.2878943e-01
   4.7746863e-01
  -1.6886708e-02
   2.8398629e+00
  -3.1237013e-01
  -1.9181516e-01
  -1.8432899e-01
   3.9906790e-02
  -2.0627965e-04
   2.7417848e-01
   1.2522538e-01
  -1.1205404e-02
   1.9781552e-01
   7.7702979e-03
  -9.6676030e-03
   1.3848142e+00
  -2.8144856e-01
   1.2495144e-02
  -5.3339670e-01
   6.1015248e-02
  -4.2904545e-03
  -9.1366335e-01
   2.2497209e-01
  -1.7653070e-02
   1.7690732e-01
  -4.5213572e-03
   3.2553333e-03
  -6.5879170e-01
   1.2509909e-01
  -8.7236443e-03
   7.5650454e-01
  -2.2905334e-01
   1.6223973e-02
  -3.9682360e-01
   3.1394584e-02
   3.6671225e-03
   6.9033734e-01
  -1.2348117e-01
   1.8215543e-03
  -1.0836257e+00
   7.8610087e-02
   5.9421301e-03
  -3.4573081e-01
   2.4033427e-01
  -2.8527882e-02
  -1.2640573e-02
   2.2257695e-01
  -1.4837267e-02
   8.5571204e-01
  -1.0160811e-01
   2.4895508e-03
  -9.0453084e-01
   3.9502871e-01
  -2.4053064e-02
   2.5435892e-01
  -2.6292734e-01
   2.5754876e-02
   1.6450538e-01
  -6.3765446e-02
   6.3869126e-03
  -9.7578641e-02
  -3.5556121e-02
  -7.6812405e-04
   1.0839590e+00
  -2.9887465e-01
   2.9706938e-02
  -2.2096629e+00
   4.7442816e+00
   1.3995024e+00
  -8.4896584e+00
   6.3921420e+00
  -7.8537950e+00
   1.3864150e+01
  -1.2914755e+01
  -3.7841918e+00
  -3.4126791e+00
  -2.8556458e+00
   7.3367822e+00
  -7.2601831e+00
   8.5861115e-01
   5.5887031e+00
   2.7872401e+00
   7.9651527e+00
  -2.0900382e+00
   1.3105153e+00
  -1.5362289e-01
   5.1667535e-03
   9.1257250e-01
  -3.1037581e-01
   2.2792558e+00
  -1.0939405e+00
  -4.1529162e-01
   1.7266494e+00
  -2.4058286e+00
   1.0034814e+00
   1.0145371e+00
   1.8611429e+00
  -1.7121158e+00
  -2.3425428e+00
  -7.7717599e-01
   7.5525442e-01
   1.3083158e+00
   6.5597656e-01
  -1.1691082e+00
  -1.2927150e+00
  -1.3628493e+00
  -2.5368052e+00
  -2.4303549e+00
  -2.0275387e+00
   3.9248362e+00
   6.7189388e+00
   1.1198332e+00
   1.2341004e+00
  -1.2051717e+00
   1.6294347e+00
   1.4821954e+00
  -6.2050854e+00
   2.4352237e+00
   7.3314753e-01
  -1.8522288e+00
  -1.0663393e+00
   5.0556011e-02
   7.5764338e-01
  -2.2178914e-01
   7.3058062e-01
  -1.1377633e+00
  -2.8350346e+00
  -9.1293733e-01
   5.8067170e+00
  -2.1856059e+00
   1.5974947e+00
   1.7992980e+00
   4.7266115e-01
  -6.8463175e-01
  -7.1178537e-01
  -4.4038976e-02
  -1.6092906e+00
   1.6652052e+00
   6.2249101e-01
   2.0067526e+00
   1.5876010e-01
  -6.0782067e-01
  -2.8298355e+00
  -2.9396824e-02
   5.5683846e-01
  -3.7481842e-01
   1.5439771e-02
  -1.2264172e-01
   1.5624394e+00
  -2.2618859e-01
  -6.5099866e-01
   1.5798267e+00
   1.8623971e+00
   2.9057089e+00
   1.9179050e+00
  -2.2447854e-01
   9.7690672e-01
   6.9560155e-01
   1.2361160e-02
  -1.3235074e-01
  -1.0917261e+00
   1.6032570e-01
  -1.4962009e+00
  -8.2279630e-01
   6.5388874e-02
  -6.2618793e-01
   1.1569702e+00
  -8.5371302e-02
  -2.5363865e+00
  -6.0231728e-01
  -1.0610263e-01
   1.4913481e+00
  -5.6422910e-01
   4.2059059e-02
  -1.7492768e-01
  -1.3625323e-01
   1.0562209e-02
   6.8821125e-01
  -8.3864649e-02
  -2.2731010e-03
  -2.8590898e-01
  -1.4358330e-01
   1.3562003e-02
   1.0491476e-01
  -5.7283246e-02
   1.6715828e-03
   7.6073664e-01
  -4.7186344e-02
   1.7888474e-04
  -8.9059217e-01
   3.9908396e-01
  -2.6366372e-02
   5.8878938e-01
  -7.6845712e-02
   3.3073585e-03
  -5.0439653e-01
   2.6457278e-02
  -4.1124975e-04
  -5.2871820e-01
  -1.2475816e-01
   1.5726964e-02
  -4.6620551e-02
  -1.0306433e-01
   6.8231909e-03
  -1.8278442e-01
  -5.0165055e-02
   8.2744907e-03
  -1.4466033e+00
   4.5463785e-01
  -2.9576998e-02
  -8.0568333e-01
   1.1389010e-01
  -4.0411709e-03
  -6.7172886e-01
   9.5186956e-02
  -3.7778202e-03
  -4.0544315e-01
   4.8893170e-02
  -2.1830622e-03
   1.9377222e-01
  -6.4337888e-02
   7.8801025e-03
   1.0337991e+00
  -4.3953630e-02
  -1.0014855e-03
  -8.0656493e-01
   1.5406461e-01
  -5.5779935e-03
   1.4487632e+00
   2.8359217e-02
  -1.4995476e-02
  -2.2272268e+00
  -1.2676570e+00
  -5.0982872e+00
  -1.3381640e+00
   1.1679951e+01
  -2.3033976e+00
   8.6243651e+00
  -1.1412842e+01
   1.0559594e+01
   1.9879658e+00
   1.5423507e-01
  -1.5362314e+01
  -7.1752972e+00
   6.6988551e+00
   1.0972710e+00
   7.6330669e+00
   1.0344084e+01
   2.9814597e+00
   2.6784623e-01
  -1.8079816e-02
   2.3854854e-04
   8.0482259e-01
   7.1254206e-01
  -6.6455859e-01
  -7.0171897e-01
   7.7808894e-01
   4.7824214e-01
  -1.1022017e+00
   1.1581622e-01
   5.3091410e-01
   4.9019307e-01
  -2.1523606e+00
   2.0623805e-02
   2.9556973e+00
   1.8675905e+00
  -2.1483252e+00
  -2.1103174e-01
   1.3979387e+00
  -1.4720308e-01
   3.9047575e-01
  -1.2484948e-01
   8.5399899e-01
   1.4172639e+00
  -2.6360488e+00
  -5.0944567e+00
   2.7170721e-01
  -5.3230724e-01
  -1.0080212e+00
  -4.2931766e+00
   9.3889238e-01
   1.1197145e+00
  -2.6406735e+00
  -6.6834873e-01
   2.5725858e+00
  -1.4822201e+00
  -1.2815405e+00
  -1.9741554e-01
   1.8097293e+00
   1.5406190e-01
  -3.8290808e+00
   3.4520930e+00
  -4.0718821e+00
  -1.5646485e+00
  -2.0411083e+00
  -2.9932086e+00
  -3.7618919e+00
  -7.3760898e-01
  -6.2024457e-01
  -5.7767080e-01
  -3.7454748e-01
  -2.3797892e+00
   1.0573131e+00
  -5.3551424e-01
  -1.1763479e+00
  -2.3745735e+00
   9.1949873e-01
  -2.9420518e+00
  -4.5657599e+00
  -5.2319048e-01
  -8.7457016e-01
   7.1641731e-02
  -1.0423780e+00
  -8.7404292e-02
   4.8983179e-01
   2.2959788e-01
   4.9393129e-01
  -3.2514861e+00
   1.1708373e+00
  -1.9381627e+00
   1.7912442e-01
  -1.4862447e+00
  -1.8274451e+00
   2.1851594e-01
  -1.1314963e+00
  -5.8072776e-01
   5.9541934e-02
  -1.1798291e+00
   3.6727564e-01
  -3.5227396e-02
  -2.7330104e+00
  -9.5108055e-01
   1.0287660e-01
   1.6720263e+00
  -4.6177997e-01
  -1.7294136e-01
  -1.7208631e-01
   1.7881162e-01
  -9.0469546e-03
  -4.4106702e-01
  -3.4339567e-02
   3.2825464e-03
   6.0967661e-01
  -4.8490113e-02
   1.4255280e-03
  -1.2096624e+00
   1.9180544e-01
  -7.1361580e-03
  -8.1634799e-02
   6.2673444e-02
  -3.4453418e-03
  -1.5649363e+00
   1.0514660e-01
  -3.4740937e-03
   6.8972925e-01
  -1.7590421e-01
   1.0881962e-02
   2.9309161e-01
  -7.2168608e-02
   2.5732009e-03
  -2.6580810e-01
   1.1037267e-01
  -7.7423686e-03
  -9.0729876e-02
   4.8979943e-02
  -6.4988165e-03
  -1.6690076e-01
   2.7624425e-02
  -2.2056674e-03
   1.3476122e+00
  -8.1262478e-02
   2.0518052e-04
   4.1345272e-01
  -1.1345905e-02
  -1.3059666e-03
  -1.1595493e+00
   1.8849593e-01
  -5.7846586e-03
   1.5601328e+00
  -2.0208158e-01
   7.2398984e-03
  -9.6324602e-01
   1.0827875e-02
   2.7499182e-03
   5.0053071e-01
  -9.4078889e-02
   5.3332348e-03
   3.5413322e-01
  -7.1463616e-03
  -6.6595321e-04
   4.7294055e-01
  -2.7336466e-02
  -3.7535634e-04
  -3.6085781e-01
  -1.4093689e-02
   7.2672149e-03
  -1.0552732e+00
   9.6320322e+00
   6.9023928e+00
   1.6686525e-02
  -7.8413237e-01
  -1.5192502e+01
   7.8022473e+00
   5.0106655e+00
  -8.4189954e+00
  -1.3602252e+01
   5.1295330e+00
   4.8708227e+00
   2.2148870e+00
   8.1431596e+00
  -1.6523429e+01
   2.0149433e+01
   7.4739659e+00
   1.7345827e+01
   1.1087340e+01
  -1.1351752e+00
   3.2718950e-02
   7.8848964e+00
  -1.2335562e+01
   3.6347218e+00
   5.7693524e+00
   5.0651742e+00
  -6.2026624e+00
   1.7847193e+01
   1.0871658e+00
   2.8839116e+00
  -2.1153694e+01
   1.2555710e+01
  -7.1361024e+00
  -6.3398630e+00
  -5.2451784e+00
   8.8163001e+00
   8.5731909e+00
   3.0190622e+00
  -2.1051450e+00
   1.2255893e+01
  -2.9561240e+00
  -7.3266170e+00
   1.8613608e+00
  -3.9371235e+00
   1.8859699e+01
  -1.6335477e+00
  -1.5768995e+01
  -4.6576258e+00
   8.7070949e+00
  -1.1441658e+01
  -1.7479516e+01
   1.9611053e+01
  -6.0269874e+00
  -3.0269806e+01
  -6.3048523e+00
   5.8759566e+00
   5.3002088e+00
   7.4260059e+00
  -1.3616146e+01
  -2.1598700e+01
   1.8518093e+01
  -1.4413460e+01
  -3.6171744e+01
   1.0797150e+01
   1.0537307e+01
   8.3256277e+00
  -1.7877873e+00
  -5.4683909e+00
   4.5442514e+00
  -1.0951800e+00
   1.3147228e+01
   1.3805699e+01
   1.4133313e+00
   1.9966081e+01
   1.9550108e+01
   2.6482306e+01
  -1.4092381e+01
  -4.3285212e+01
   7.5317454e-01
   1.0245035e+01
  -9.0327235e-01
   4.6130595e+00
   9.1304637e+00
   1.7934789e+00
   1.4061571e+01
   4.3493975e+00
  -8.7085807e+00
   4.1362741e+00
  -9.0092545e+00
   8.3447726e-01
   7.5954843e+00
  -7.2818532e+00
   6.8744689e-01
   1.3229561e+00
   3.6872577e+00
  -3.5144106e-01
   2.4208452e-01
   8.0874755e+00
  -7.4649306e-01
   7.3955581e+00
   1.1879863e+01
  -1.0999587e+00
   1.1982209e+01
   3.2178136e+00
   3.9295672e-02
  -3.5190210e-01
  -5.5829577e-02
   9.7198186e-03
  -1.2664079e-01
  -1.3498020e-01
   5.0833866e-03
   8.2053720e-01
  -2.6178015e-01
   4.2814301e-03
   1.4887994e+00
  -1.0205247e-01
   6.6640740e-03
  -6.6724567e-01
   6.8314891e-02
  -3.2734840e-03
   7.6838024e-01
  -1.5100184e-01
   1.1133536e-02
  -1.7096649e+00
  -2.7081821e-02
   9.3277417e-03
   1.5364811e+00
  -2.2025881e-01
   7.0961757e-03
  -3.5100219e-01
   6.7327343e-02
  -4.6747507e-03
   4.2289752e-01
  -9.1490508e-03
   1.6148214e-03
  -3.8138548e+00
   3.4335735e-01
  -1.2504842e-02
  -1.4718953e+00
   3.6027872e-01
  -2.0580820e-02
   4.8490153e+00
  -4.9802468e-01
   1.7842615e-02
  -2.1656088e+00
   1.6788974e-01
  -2.3260874e-03
   4.1644537e-01
  -8.9454559e-02
   3.6911828e-03
   1.6449773e+00
  -9.8635901e-02
  -9.3265206e-03
  -1.8980960e+00
   5.7728070e-01
  -2.1392945e-02
   2.7911818e-01
  -1.5366027e-02
  -9.0652607e-04
   1.2407668e+00
   3.5517868e-02
  -6.2375019e-03
   1.9744792e+00
  -4.5643268e-01
   1.8092223e-02
  -5.2004566e+00
  -2.7795231e-01
  -6.8244354e+00
  -6.9861890e+00
   8.0693519e+00
  -2.0778352e+00
   6.2420949e+00
   1.8878988e+01
  -9.2493553e+00
   1.2295462e+01
   8.5671659e+00
   7.5265121e-01
   2.3823307e+00
   1.9500286e+01
  -7.2531324e+00
   1.6710602e-01
   4.0943321e+01
  -7.5992290e-02
   4.8293425e-01
  -5.0382432e-02
   1.5200219e-03
  -7.4135088e-01
   1.5298470e+00
  -1.6151873e+00
  -1.9980771e-01
  -9.5961927e-01
   4.1670864e+00
  -3.7953358e+00
   1.0786324e+00
   2.6578535e-01
   7.7094912e-01
  -2.6403777e+00
  -5.3475135e-01
   1.7725013e+00
   1.2855436e+00
  -4.8805198e-01
   2.3653184e+00
  -1.3508928e+00
  -9.2312250e-01
  -5.9524332e-01
   4.8673461e-01
  -5.0734265e-01
   1.6959403e+00
  -3.7932693e-01
  -1.1213915e-01
  -2.3557071e+00
  -6.5731469e-01
   1.1856762e+00
   2.9054089e+00
  -2.5835097e+00
  -7.9344615e+00
  -6.9950717e-01
  -3.0874747e+00
  -6.1496303e-01
  -1.8882772e+00
   2.1389402e-01
   7.6769399e-01
   2.7597957e+00
  -3.3309260e+00
  -4.2753535e+00
   3.5115580e+00
  -4.5156194e+00
  -4.2309474e+00
   6.3612172e-01
   1.5996270e+00
  -3.5747522e+00
   2.6239827e+00
  -8.2277146e-01
  -4.5610013e+00
  -4.2292320e-01
  -1.8398234e-01
  -5.4672146e-01
   1.2229861e-02
  -1.9296025e+00
  -1.4408817e+00
  -1.4950310e+00
  -3.2854245e+00
   1.4512341e+00
  -1.5660367e+00
  -3.1243591e-01
   6.2131917e-02
   1.2362792e+00
  -2.3529244e-01
  -1.9853067e+00
  -1.0089974e+01
   2.2480969e+00
   9.9243706e+00
  -2.5646527e+00
   5.4655074e-01
  -3.1316086e-02
  -1.0696889e+00
  -7.7254848e-01
   1.0522813e-01
  -8.0564278e-01
   3.6399806e-01
  -2.1843319e-02
  -4.5533196e-01
  -9.5017750e-01
   9.2050515e-02
  -1.1639739e+00
  -8.7918086e-01
   6.1577161e-02
  -2.7272267e+00
  -1.5137975e+00
  -2.3992942e-01
   1.4417701e-01
  -9.6653476e-02
   6.2726187e-03
   8.2040835e-01
  -1.3157288e-01
   5.1929244e-03
   7.5160311e-01
  -8.8261412e-02
  -2.5123225e-03
   1.1574069e-01
   4.8363676e-02
  -8.9747538e-04
  -1.2035110e+00
   1.3231461e-01
  -4.3588150e-03
  -3.8554407e-01
   2.0526750e-01
  -1.1102635e-02
  -7.6898839e-01
   8.0201541e-02
  -4.0732852e-03
   3.5230081e-01
  -8.2067951e-02
   2.7477031e-03
  -1.3993223e+00
   1.9716907e-01
  -7.4280663e-03
   2.4213585e-01
  -2.7581645e-01
   1.5402639e-02
   6.1094902e-01
  -1.9843611e-02
   3.8200683e-04
  -1.5154660e+00
   1.7580414e-01
  -2.5893604e-03
   4.0068330e-01
   2.1175356e-02
  -5.5113892e-03
  -1.4058499e-01
   1.0107126e-01
  -5.5164664e-03
   1.3052032e+00
  -2.9595394e-01
   1.1541668e-02
  -6.5652223e-01
   2.9996161e-01
  -8.6134019e-03
   1.2098219e+00
  -3.7245413e-01
   7.4227711e-03
  -4.3288730e-02
   3.0124854e-02
  -6.7311030e-04
   3.4491766e-01
  -6.9093301e-02
   1.5461702e-03
  -7.4110169e-01
   3.0552524e-01
  -1.1579180e-02
  -2.5929629e+00
   5.9825622e+00
  -5.9682819e-01
   9.5965400e-01
   7.3096295e+00
  -4.1672512e+00
   5.0192187e+00
   5.7035475e+00
  -9.5884353e+00
  -1.0116079e+01
   3.2195654e+00
   2.5478619e+00
   2.8314842e+00
   1.0090840e+01
  -2.2127054e+01
  -1.8233220e+01
   9.5077542e+00
  -1.5177241e+01
   1.2541629e-01
   1.7695190e-05
  -2.9728313e-04
   9.9369043e-01
  -9.2556868e-01
  -5.0736838e-01
  -1.1939675e+00
  -9.4937826e-02
   1.6438425e+00
  -2.0254105e+00
  -7.0199916e-01
   9.5444670e-01
   1.8337662e-02
  -8.2343523e-01
  -1.4483814e+00
  -7.1848995e-02
   5.2802927e-01
   5.7038361e-01
   6.9258031e-01
   1.2048551e+00
  -1.7447108e+00
   6.2588037e-01
   2.5169333e-01
  -1.4977602e-01
  -9.3279338e-01
   2.6850334e+00
   7.1567556e+00
  -1.3868057e+00
  -1.6327650e+00
   2.8766818e+00
  -9.3368163e-01
  -2.5300139e+00
  -5.8502458e-01
  -3.7935068e+00
   1.2979568e-01
   4.0065942e+00
   2.5486695e-02
   2.8050158e-01
   5.9537797e-02
   1.9154098e+00
  -1.2403980e+00
  -4.1486660e+00
   2.8326644e+00
  -2.0095207e+00
   2.1137874e-01
  -3.0651144e-01
   3.6856667e+00
   2.6440182e+00
   1.0006219e+00
  -1.1879595e+00
  -1.3404075e+00
  -1.4006617e+00
   1.0094864e+00
   6.1121342e+00
  -5.9163061e-01
   7.4924871e+00
   6.5884665e+00
   4.4422480e+00
  -4.4977233e+00
  -6.6685301e+00
   6.4171805e-01
   2.2641836e+00
  -1.7612822e-01
   1.3432570e+00
   1.8568753e+00
   6.8085598e-01
   3.8272802e+00
   1.6157937e+00
  -4.9537154e+00
  -1.1987930e+00
   2.8369690e+00
  -2.6719101e-01
   2.1294429e+00
   1.8244695e+00
  -2.4735689e-01
   5.4817577e-01
   1.1220729e+00
  -1.1727404e-01
  -1.5971393e-01
  -1.8147642e-02
   9.3937066e-03
   9.8592462e-01
   3.2188266e+00
  -3.3191336e-01
  -1.8197603e+00
  -1.6630359e+00
  -2.8979343e-01
  -7.5526824e-01
   1.7222573e-01
  -8.9929732e-03
  -2.3443696e-01
  -2.7814767e-03
   3.1029291e-03
   1.3737804e-01
   3.1346850e-02
  -5.1053133e-03
  -9.4298698e-02
  -6.4216209e-02
   7.6458173e-03
   9.7503071e-02
   4.4650836e-02
  -1.4747293e-03
   3.0510935e-01
  -6.2525350e-02
  -8.8217818e-04
  -3.5042846e-01
   7.2021527e-02
  -5.4733686e-03
   1.5012759e+00
  -2.4196923e-01
   7.1055379e-03
   2.4795814e-01
   4.8766586e-02
  -2.9545645e-03
   4.2394741e-01
  -5.9435909e-02
   2.8662505e-03
  -1.7103677e-01
  -1.4631952e-01
   8.3820144e-03
  -4.2771899e-01
   1.2584425e-01
  -8.4511624e-03
   8.1976248e-01
  -2.5140240e-02
   2.0697929e-04
  -1.5774062e+00
   2.2730523e-01
  -1.0054556e-02
  -9.8807068e-01
   8.0086874e-02
  -2.7625110e-03
  -2.7901290e-01
   4.1003545e-04
   1.1901812e-02
   6.0144030e-01
  -1.6891332e-01
   2.9923114e-03
   2.6507555e-01
  -1.0673026e-02
   5.9694350e-05
  -6.5814582e-02
   5.7134121e-02
  -3.3635106e-03
  -1.9221180e-01
   7.1232555e-02
  -2.0840992e-03
   1.0796264e+00
   5.3922894e+00
  -1.8760592e+00
  -2.3893939e+00
   5.6258891e-01
  -7.5712467e+00
   1.5186011e+01
  -5.3856498e+00
   1.0608667e+00
  -2.3644206e+00
   4.0666871e+00
  -1.2290777e+01
  -1.1397467e+01
   6.9676451e+00
   5.8245201e+00
  -1.0153008e+01
   8.2579398e+00
  -5.1389628e+00
   1.3811811e+00
  -1.4182639e-01
   4.2140660e-03
   4.2570878e-01
  -2.6067145e+00
   3.9469003e+00
  -1.5691410e+00
   2.5736737e+00
  -1.3852309e+00
  -1.0111502e+00
   2.9621086e+00
   2.9756373e-01
   1.7018941e+00
  -4.6579322e-01
  -5.0351189e+00
   1.2994338e+00
  -2.6039353e+00
  -2.5171525e+00
   2.2828887e+00
  -1.8343407e+00
  -1.3916392e+00
   8.6544581e-01
  -3.1974215e-01
  -2.3368103e+00
  -1.5619786e+00
   5.2830914e-01
   1.6230153e+00
  -5.1295225e-01
   3.5831788e-01
   1.5769706e+00
   1.3867408e+00
   3.0245840e-01
  -2.5380953e+00
  -2.3268516e+00
   1.7411277e+00
   1.6896214e+00
  -1.9819860e+00
  -5.4511978e-01
  -1.9968205e-01
   2.6842826e+00
   2.2361352e-01
  -5.6719928e+00
   1.5645788e+00
  -1.3365959e+00
  -2.5215009e+00
   1.4155063e-01
   1.2896684e+00
   8.1511046e-01
  -6.9249556e-01
  -8.8688057e-01
   1.3110101e+00
   1.0391058e+00
  -1.9711616e+00
  -1.2949440e+00
  -2.7408059e+00
   1.0542696e+00
   1.2140600e+00
   4.2910607e+00
  -6.9114538e+00
  -4.7291778e+00
  -5.8826007e-02
  -5.7311304e-01
   2.1892065e-02
   7.1194550e-01
   1.0730467e+00
  -2.2073181e+00
   7.7299901e-01
   5.8213469e-01
  -2.1356432e+00
  -1.2023730e-01
  -3.3648037e-01
   3.9738525e-02
  -6.1075448e-01
  -2.5921869e-01
   5.9913748e-02
  -2.6737329e-01
   2.0197962e-01
  -2.8245769e-02
  -9.8201424e-01
  -5.3769626e-01
   6.2150514e-02
  -5.5552353e-01
  -2.6079503e+00
   2.1875490e-01
   3.1694628e+00
   5.3474829e-03
  -2.1813655e-01
   1.0499361e+00
  -4.1612937e-01
   4.0212035e-02
  -1.8840396e-01
   1.1620513e-03
  -2.7092565e-04
   1.4502773e+00
  -2.2969511e-01
   9.4227696e-03
  -6.7053350e-01
   3.1976428e-02
   4.3474310e-03
   8.1865010e-02
   6.9029970e-03
  -1.7069654e-03
  -5.7922045e-01
   1.3990001e-01
  -1.0578056e-02
   7.4217106e-01
  -1.7543827e-01
   3.3878725e-03
   9.4048327e-02
  -1.1390757e-02
  -2.3078560e-03
   3.5648843e-01
  -1.7472609e-01
   1.5437081e-02
   7.1082215e-01
  -1.9968457e-01
   1.2019576e-02
  -7.8477150e-02
  -8.4701932e-02
   4.5092686e-03
   5.9570404e-01
   4.3711854e-02
  -5.9408693e-03
  -8.7231829e-01
   3.2214034e-01
  -1.3879457e-02
  -1.2455069e+00
   1.1632399e-01
  -4.3223311e-03
   1.8587899e-01
  -8.2329544e-02
   3.5518930e-03
  -1.1265163e+00
   3.5650817e-01
  -1.5442998e-02
  -1.5586391e-01
  -1.3289545e-02
  -9.7559932e-03
   8.5589531e-01
  -4.0359404e-02
  -6.9069217e-04
   5.1491961e-02
   1.7667691e-01
  -1.3927107e-02
   1.8762783e-01
   1.5882045e-01
  -7.6738715e-03
  -4.0674978e+00
  -1.0070441e-02
  -8.3713785e-02
  -2.4375274e+00
   1.6326946e+00
  -2.7699243e+00
   8.5146111e+00
  -1.1522130e+01
  -1.6305234e+00
   2.7069415e+00
   5.1600906e+00
  -6.4614562e+00
  -6.9562960e+00
  -4.7680042e+00
   9.4452150e+00
  -2.5894297e+00
   9.1188114e+00
   3.6730860e+00
   1.5799158e+00
  -1.7217483e-01
   5.3096799e-03
   1.3412490e+00
  -2.4750212e+00
   9.7522225e-01
  -1.9218392e+00
   1.4308490e+00
  -8.7364526e-01
  -1.2286165e+00
   2.3253898e+00
  -3.4766876e-01
   3.9992036e-01
   1.0390977e+00
  -1.9864469e+00
   2.8464263e+00
  -1.5783903e+00
  -2.6486953e+00
   4.2311040e-01
  -4.6920497e-01
   7.1642163e-01
   1.7623972e+00
  -1.7401393e+00
  -2.7156959e+00
   1.3778244e-01
  -2.1784811e-03
   1.7945863e+00
   9.3899239e-01
   1.4330241e+00
  -3.7641369e-01
   1.0148740e+00
   1.0234467e+00
  -1.1321799e+00
   7.3795092e-01
  -2.0008660e-02
   7.7274645e-02
  -2.3746422e+00
  -6.6958294e-01
   7.5314902e-01
   3.1564346e+00
  -2.0381467e-01
  -4.4219634e+00
   3.2329582e+00
   3.2332916e-01
  -5.5615629e+00
  -6.0818991e-01
   2.4687557e+00
   3.2172929e+00
  -5.5837352e-01
   9.4409194e-01
   5.1861138e-01
  -6.1808856e-01
   1.0270556e+00
   3.8701027e+00
  -4.8560010e-01
   1.8102015e+00
   3.8388113e+00
   1.2707750e+00
   2.4503470e-01
   2.6782476e+00
  -4.1312336e-01
   1.4907907e+00
  -1.4397840e-01
   1.2703066e+00
   8.0785954e-01
  -2.1787526e+00
   5.6915745e-01
   4.0163794e-01
   8.1745967e-01
   1.3625042e+00
   2.1115861e+00
  -2.2093777e-01
   2.3216545e+00
  -2.1010801e+00
   1.6389280e-01
   8.1833875e-01
   3.8192067e-01
  -8.0645886e-02
   4.9603463e-01
   2.4222731e-01
  -3.0838088e-02
  -6.8410995e-01
   2.6662334e+00
  -2.4965016e-01
   4.1416769e-01
  -5.9445889e-01
  -1.8077994e-01
  -2.7828512e-01
   7.0574003e-02
  -6.5013860e-03
  -1.0930715e+00
   1.4827836e-02
   6.7417369e-03
   2.0401223e-01
   2.2362918e-02
  -2.3668850e-03
  -9.0071535e-01
   4.5856218e-03
   5.5712043e-03
   3.0759666e-01
  -1.0017814e-02
  -1.3607045e-03
   1.0730605e+00
  -2.5979629e-02
  -6.0719123e-03
  -4.8403033e-01
   1.4081807e-01
  -1.0053873e-02
   6.0243316e-01
  -1.1731875e-01
   5.5987600e-03
  -4.5297844e-01
   1.6408415e-01
  -8.6384331e-03
   6.9277187e-01
  -8.8293892e-02
   3.0837099e-03
  -1.2217536e+00
   1.3940099e-01
  -3.9466079e-03
   1.3853215e+00
  -2.1769851e-01
   6.3013539e-03
   2.7169138e-01
  -7.3341996e-02
   5.5922405e-03
  -3.0899557e-01
   8.3888003e-02
  -9.6174110e-03
  -1.0243018e+00
   4.1632667e-02
  -1.3224472e-03
  -5.5766270e-01
   2.7557871e-01
  -1.4776098e-02
   8.7783290e-01
  -4.3056415e-01
   2.5253409e-02
   9.9205062e-01
  -6.6263122e-02
   1.1540819e-03
  -3.6351823e-01
   3.5089370e-02
   4.4208855e-03
  -3.3532244e-01
   1.8778105e-01
  -3.9814303e-03
   3.2952116e+00
  -1.8491783e+00
   1.6713635e+00
   2.0654909e+00
   6.0074765e+00
   2.6208882e+00
   1.6563141e+00
  -6.6427110e+00
   3.9450090e-01
  -2.1093592e+00
   2.7428759e+00
  -6.1583966e-01
   8.3593579e-01
  -2.7556778e+00
   3.0467359e+00
  -2.4285931e+00
   3.4563716e+00
   2.3177055e+00
   5.3111965e-01
  -7.9571642e-02
   2.9543403e-03
   8.6688182e-01
  -1.6211322e+00
  -1.5468038e+00
  -1.1834371e+00
  -9.3795598e-01
  -2.4957559e+00
   5.6606624e-01
  -3.2185234e-01
  -2.0693783e+00
   2.2875519e-01
   4.0680199e+00
   1.2115592e+00
   1.6587186e+00
  -1.6944099e+00
  -1.5075967e+00
  -3.5095252e-01
  -8.6935401e-01
   1.8026387e+00
   1.8404979e+00
  -8.9989069e-01
  -1.3523246e+00
   1.2981404e+00
   1.6850619e-01
   3.1356006e+00
  -6.2010432e-02
   1.4323508e+00
   3.8873316e-01
  -2.4155821e+00
   1.2665422e+00
   2.4340484e+00
  -1.3259148e-01
  -6.5956541e-01
   1.0965559e+00
   2.1175297e-02
   6.4999245e-02
  -2.6826970e+00
   1.6784271e+00
   1.3346057e-02
  -5.2897804e+00
   1.3456066e+00
  -6.5445585e-01
  -1.2370136e+00
  -1.7703574e+00
   2.5585868e+00
   4.1973931e+00
   5.7299842e-01
  -3.5310041e-01
  -1.4110312e-01
   3.5291816e-02
  -1.2967366e+00
  -7.2547146e-01
  -1.9494137e+00
   3.4236408e+00
   3.4339254e+00
  -2.0477276e-01
  -2.4923836e+00
  -4.4553959e-01
  -2.0446094e-01
   8.8470748e-02
  -2.3843183e-02
  -4.1297200e-01
  -1.1288858e+00
  -9.1745448e-01
  -4.9835049e-01
   1.2723697e+00
   9.4185047e-01
  -8.7195759e-01
   2.7379393e+00
  -2.6403275e-01
   1.3066568e+00
  -1.4727428e+00
   1.3051952e-01
  -2.8177976e-01
  -4.5619892e-01
   3.2523504e-02
   6.9558277e-01
  -1.1856964e+00
   1.0119931e-01
  -7.4406253e-01
  -6.7836986e-01
   5.5832709e-02
   2.1336265e+00
   1.1001892e-01
  -1.0660777e-01
  -6.4900856e-01
   3.7154238e-01
  -2.5730995e-02
  -1.0469858e+00
   7.5194984e-03
   1.8420069e-03
   4.2149062e-01
   8.4366757e-02
  -7.9381292e-03
  -4.2874288e-01
   1.8005011e-02
   1.6225158e-03
  -2.4151621e-01
   3.5193101e-02
  -1.5483838e-03
  -1.1519721e-01
   1.8980189e-01
  -1.4722770e-02
   4.7103878e-01
  -1.4576011e-01
   9.5956742e-03
   3.3303427e-01
  -1.0466647e-01
   2.8692930e-03
  -9.4693392e-01
   1.9542317e-01
  -1.0469276e-02
  -3.8807966e-02
  -7.7719326e-02
  -1.0443430e-03
  -1.8795581e-02
   9.6753357e-02
  -2.9595605e-03
   1.1360423e+00
  -1.9690491e-01
   1.0328026e-02
   3.7977400e-01
  -1.0896026e-01
   1.3088912e-02
  -5.7726746e-01
   1.1788001e-01
  -7.6948804e-03
   6.8494137e-01
  -1.6196722e-01
   7.0806643e-03
   1.3950890e+00
  -1.9054985e-01
   1.0692047e-02
  -1.1061159e+00
   1.2405763e-01
   1.9330432e-03
   1.8055664e-01
   2.5566616e-02
  -1.7331995e-03
   6.4808140e-01
  -1.4241483e-01
   7.3825513e-03
   5.2865629e-01
   5.3105487e-02
  -4.8542825e-03
   4.5238125e+00
  -8.3015299e+00
  -1.1671684e+00
  -4.5238300e-01
   4.7416115e+00
   2.5814226e+00
   3.5884719e+00
  -4.8201921e+00
   3.7734997e+00
  -3.5805917e+00
   5.9054457e+00
  -1.3668356e+00
  -2.5066041e+00
   5.4584994e+00
  -4.3170560e+00
  -5.4137823e-01
  -5.9555606e-01
  -6.6552077e-01
  -6.2370269e-02
   8.5407163e-03
  -3.1085733e-04
  -1.2020089e+00
  -6.6090991e-01
   3.3604784e-01
  -3.9590752e-01
  -4.1851751e-01
   1.6149968e-01
  -5.3247278e-01
   4.0167775e-01
  -1.2923054e-01
   8.8685772e-01
  -7.8090491e-01
  -2.6153946e+00
   6.0831792e-01
  -6.6461570e-01
  -1.5646746e+00
   1.6163261e+00
  -1.8340349e-01
  -1.6264163e+00
   2.0991137e+00
   9.4250041e-02
  -1.5486926e+00
  -4.3503619e-01
   1.1893180e+00
   2.1810712e+00
   6.5424069e-01
   2.9183806e+00
  -1.2892639e+00
  -2.3006945e-02
   1.0657072e+00
   4.1463373e-01
  -1.4420750e+00
   7.4448219e-02
   2.9822674e+00
   1.0507504e+00
  -1.7509864e+00
  -6.5262237e-01
  -2.9794234e-01
   1.2313632e+00
  -1.9200808e+00
   1.9459070e+00
  -1.1626610e+00
  -1.5152696e+00
  -3.7771619e-01
   1.1142748e+00
   2.1927052e+00
  -7.0545474e-01
   1.2534489e+00
   2.3694071e+00
  -7.9541027e-02
   2.0406162e+00
   2.0309977e-01
  -3.8652051e-01
   2.1258787e+00
   3.2089303e+00
   7.8843410e-01
  -2.9034183e+00
   2.1541409e+00
   1.4511251e-01
   8.4624110e-02
   1.6530805e-02
   1.5425641e+00
  -1.5950143e-01
  -4.5029826e-01
   1.1769141e+00
   4.1642301e-01
  -9.1740768e-01
   4.6457140e-01
   2.4026536e+00
  -2.3606328e-01
   3.9112830e-01
  -9.4229374e-02
  -5.1861454e-02
   2.3524643e-01
   1.5397963e+00
  -1.7177847e-01
  -1.7979188e-01
   6.7032233e-02
  -4.7268285e-03
  -9.0441936e-02
  -7.4104569e-01
   5.1671275e-02
   5.2446048e+00
   1.9238309e+00
   1.8103373e-01
  -3.4247348e-01
   3.2019849e-01
  -2.8242703e-02
  -1.0788333e+00
   4.8045834e-02
   2.7889231e-03
   4.2938538e-02
   5.9139725e-02
  -1.6020430e-03
   2.2431018e-01
  -5.0616867e-02
   4.9777920e-03
   1.2037878e+00
  -1.3195024e-01
   3.1433055e-03
  -1.4369303e-01
   9.7715095e-02
  -1.3918558e-02
   5.1618169e-01
  -8.6813637e-02
   3.5044884e-03
   5.6857601e-01
  -1.3652605e-01
   5.4212842e-03
   1.5848850e-01
   1.1829704e-01
  -8.7299679e-03
  -2.9708100e-01
   6.8353803e-02
  -5.5022885e-03
   3.2936931e-01
  -5.0447922e-02
   3.8075678e-03
   7.3572404e-01
  -1.7042522e-01
   1.0957482e-02
   3.7495710e-01
  -2.5839896e-02
   3.5941380e-04
  -3.2870499e-01
   6.0377374e-02
  -2.2107931e-03
  -6.9166848e-01
   8.0688611e-02
  -3.9095254e-03
  -3.3866917e-01
  -7.3520778e-02
   1.1879719e-02
   5.3769861e-01
  -5.7859667e-03
  -1.1540631e-02
   6.3143568e-01
  -9.6903100e-02
   2.7154042e-03
  -4.9460657e-01
   5.8542698e-02
  -3.2233006e-03
  -6.2455782e-03
  -6.9660401e-02
   1.8755205e-02
  -1.9591576e+00
  -8.2806294e+00
   5.6297884e+00
  -4.4538030e+00
   2.7100347e+00
   8.9871538e-01
   3.5770202e+00
  -6.7496194e+00
   1.2795779e+00
  -2.5415703e+00
   6.1007291e+00
  -4.2334856e+00
  -2.4038266e+00
   6.2902378e+00
  -2.8790723e+00
   5.9144402e-01
   7.7085247e-01
   8.5644639e-01
   4.9894600e-01
  -4.4404802e-02
   1.1425255e-03
   1.5032422e+00
  -5.0383396e-01
  -6.8782260e-01
  -2.8848374e-01
   4.7348144e-01
  -1.7949046e+00
   3.6267761e-01
   1.0017699e-01
  -8.8308944e-01
   4.6723564e-01
   9.4922404e-02
   1.8975719e-01
   2.9211509e+00
   7.8020470e-01
  -3.0466607e+00
  -3.9645618e-01
  -1.1899010e+00
   1.3535958e+00
  -6.9143823e-01
  -3.0228075e-01
   5.1329170e-01
   1.9338719e-01
  -7.9616207e-01
  -4.0326790e+00
  -1.1139055e+00
   2.1005925e+00
   6.0581096e-01
   4.3159255e-01
   9.8040445e-01
  -9.9298953e-01
   8.6180132e-01
  -1.0696861e+00
  -1.7721533e+00
  -1.0130194e+00
  -1.1096919e+00
  -3.2128645e-02
   2.3551077e+00
   1.2954932e+00
  -5.0038658e+00
   1.2129957e-01
  -7.6604313e-01
  -1.4302767e+00
  -2.0031744e+00
  -5.4830704e-01
   3.9306837e+00
  -1.4625309e+00
  -4.3304154e-01
   1.0934354e+00
  -5.2842195e-01
  -1.3865111e+00
  -1.7493300e+00
  -3.5081718e+00
   9.0175706e-01
   2.4106604e+00
   5.1169343e-01
  -3.1196845e+00
   3.0793308e-01
   9.4050679e-01
  -1.6023481e+00
   1.5187756e-01
   8.7709101e-01
  -1.4088150e+00
  -1.4462807e+00
  -2.0506787e+00
   3.9976589e-01
   4.3349837e+00
  -6.7394874e-01
   8.9292177e-01
  -7.5226008e-02
   1.2128015e-01
  -1.3779493e+00
   1.5885717e-01
  -1.2420590e+00
   2.0856322e-01
   1.5222169e-02
  -4.8718974e-01
   6.6652860e-01
  -6.2708390e-02
  -6.6637131e-01
  -1.3182224e+00
   7.4762307e-02
   3.2322196e+00
   1.0814833e+00
  -1.3046430e-02
  -5.4072631e-01
  -4.9529730e-02
   1.3529068e-02
  -6.6035092e-01
   1.1614762e-01
  -8.8354984e-03
   3.5472423e-01
  -9.2445960e-02
   3.8401465e-03
  -2.0674144e-01
   1.0261555e-01
  -6.5968380e-03
   8.5057266e-01
  -1.1522019e-01
   2.6490319e-03
   4.2534132e-01
   6.1516312e-02
  -5.0072995e-03
   8.9758931e-01
  -2.3553782e-01
   1.8567597e-02
  -3.7160973e-01
   8.9584824e-02
  -6.9223154e-03
  -6.5499628e-01
   1.3453141e-02
   5.2088992e-03
  -1.1320251e+00
   1.2717673e-01
  -7.1945698e-03
  -4.3645118e-01
   2.0142006e-03
   2.7342991e-03
  -2.2616020e-02
  -3.0721437e-02
   2.4173764e-04
   1.4435303e+00
  -2.0427612e-01
   5.9226479e-03
  -4.0731736e-01
   1.9521805e-01
  -1.2277616e-02
   4.5196023e-01
  -8.0179035e-02
   1.5839190e-03
  -1.5903605e+00
   3.0899766e-01
  -7.6302816e-03
   1.3205332e+00
  -2.0962856e-01
   4.0986988e-03
  -1.4092669e-01
  -2.4893976e-02
   1.5063701e-03
   1.1750798e+00
  -1.4733706e-01
   5.7749633e-03
   2.0714557e-01
   3.6252902e-02
   7.0896125e-03
   3.9196995e+00
  -4.8896091e+00
   7.3091716e+00
   2.0191947e+00
  -3.1888333e-02
  -6.6891367e+00
   1.8617396e+00
  -4.6191603e+00
   2.0425906e+00
  -5.0729731e+00
   6.6690523e+00
   3.9200862e-01
   5.9938108e-01
  -2.1942065e+00
   1.6483411e-01
  -2.6446146e+00
  -1.1319522e+00
  -8.2854986e-01
  -5.1060932e-01
   7.9631819e-02
  -2.8840367e-03
   1.1146380e+00
   3.4667139e-01
  -1.3442612e+00
   5.7634367e-01
   4.6529094e-01
   8.2076437e-01
  -4.9013374e-01
  -8.7014136e-01
   7.2908556e-01
   9.1779266e-02
  -2.8243566e+00
   1.2909357e-01
   1.8960919e+00
   1.4294070e+00
  -2.0929301e+00
  -4.9149254e-01
  -3.0548802e-01
   1.5470670e-02
  -2.7224074e+00
   1.0177700e+00
   2.0816877e+00
  -9.8942644e-01
  -2.7643238e-01
   1.0452391e+00
  -8.5905774e-01
  -2.3450473e-01
   1.6948925e+00
   4.6756041e-02
   3.7177164e-01
  -1.2738579e+00
  -2.0500765e+00
  -1.4891854e+00
   2.2693606e+00
  -1.3745097e-01
   1.3049835e-01
  -1.4773342e+00
   8.6601909e-01
  -7.8644002e-01
  -6.1319149e+00
   1.4436086e+00
  -2.1266124e+00
  -3.2261077e+00
  -1.0383463e+00
  -4.4351612e-01
   9.8537554e-03
   2.3231551e-01
   5.0712134e-01
  -2.3860824e+00
   1.0564938e+00
  -3.9224135e-01
  -3.8498304e+00
  -2.5393787e+00
  -5.8195769e-01
   3.2826053e+00
   4.6238092e-01
  -2.6111196e-02
   2.6242714e-01
  -3.7819790e-01
  -2.3390023e+00
   1.9476468e-01
  -8.1270888e-02
  -5.6149992e-01
  -2.4842910e+00
  -6.8838974e-01
  -3.6713737e-01
  -7.3248357e-02
  -2.2953480e+00
  -3.9828462e-01
   3.9660838e-02
   2.3294335e-01
  -2.7330671e+00
   2.3945409e-01
  -4.5494906e-01
  -1.2195580e+00
   1.2908602e-01
  -2.2685416e-01
  -1.6739709e+00
   1.7326031e-01
  -7.5409441e-01
  -1.2565782e+00
   8.1704629e-02
   6.3820137e+00
   2.8672323e+00
   2.5558654e-01
  -1.8448544e-01
   9.1107580e-03
   1.4964731e-03
   7.3402110e-01
  -8.6422907e-02
   3.7239403e-03
   9.1764891e-01
   3.1491669e-04
  -3.3261514e-03
  -3.3496663e-02
  -7.0702631e-02
   3.9272098e-03
   1.6227677e+00
  -1.7127462e-01
   5.6175649e-03
   1.3083052e+00
  -1.7208799e-01
   4.8012716e-03
   9.4300474e-01
  -7.5758771e-02
   4.1004775e-03
  -1.0034844e+00
   1.4358795e-01
  -5.2565437e-03
  -4.1343418e-01
   3.7426874e-02
  -2.5980283e-03
   1.0696933e-01
  -3.7089798e-02
   4.5693353e-03
   2.0396321e-01
  -9.8029392e-02
   1.4354423e-02
  -9.3102814e-01
   1.1904997e-02
   7.0328969e-04
  -8.4591879e-01
   1.3414838e-01
  -1.1970343e-02
   1.0724358e+00
  -1.0319662e-01
   1.0493472e-03
  -8.8742552e-01
   9.7113976e-02
  -3.5892941e-03
   9.5896745e-01
  -2.6423196e-01
   1.9580394e-02
  -1.2864996e+00
   1.2907413e-01
  -7.6543589e-03
  -5.3098290e-01
   3.3104835e-02
  -1.1291860e-03
  -3.3223762e-01
   2.6540675e-02
   4.6940939e-04
   6.1705287e-01
   9.4460789e-03
  -7.9692278e-03
  -3.7041556e+00
  -9.7019851e-01
   1.1930654e+01
  -1.0085794e+00
   9.3830243e-01
  -6.9513086e+00
   3.7417911e+00
  -8.6945226e+00
   3.7912108e+00
  -7.1090671e-01
   5.4662894e+00
  -6.6361089e+00
  -4.6492731e+00
  -5.5185531e-01
   3.8315850e+00
   8.7267146e-01
  -2.9417438e-01
  -1.5350486e-02
  -4.3056486e-01
   5.8931928e-02
  -2.0893797e-03
  -7.0612612e-01
   1.2577647e-01
  -7.9926044e-01
  -1.1591116e-01
  -1.0495593e-01
  -9.8719366e-02
   6.6567594e-02
  -1.2812132e+00
   3.1902996e-01
   3.9510720e-01
   4.4140352e-01
   6.8760617e-01
   1.0753782e+00
   3.7764269e-01
  -1.0558501e+00
  -7.8276248e-02
  -7.7602418e-02
   9.6358219e-02
  -9.9842310e-01
   8.4886678e-01
   1.9934864e+00
   3.5828722e-01
   1.4654305e+00
   2.7967309e-01
  -7.4110469e-01
   9.9238418e-02
  -2.6493065e-01
  -9.7903092e-01
  -1.5484760e+00
  -1.1684164e+00
  -1.1812740e+00
  -3.3084257e+00
   1.9977230e-01
   1.3273755e-03
   1.3934556e-01
  -1.4622922e+00
   6.2443700e-01
  -1.5232519e+00
  -3.6446385e+00
  -8.1949949e-01
  -2.4182210e+00
  -1.4192411e-02
  -1.4912241e+00
  -1.5143851e-01
  -4.8671151e-01
  -5.5249773e-01
  -4.8624976e-01
  -8.9030371e-01
   2.0500507e+00
  -3.2754006e+00
  -1.0419437e+00
  -2.8779552e+00
   2.5904731e+00
   1.3064488e+00
  -6.7895075e-01
  -2.7531288e+00
  -4.6855536e-01
  -4.4361172e-01
  -1.4313814e+00
   8.9107324e-02
   1.6736219e-01
  -1.0462868e+00
  -1.5718342e+00
  -1.4861952e+00
  -3.5764078e-01
   6.4809684e-01
  -1.6240013e+00
   3.8470479e-01
  -2.9031731e-02
  -4.7096930e-01
  -1.2928545e+00
   1.9019257e-01
  -5.2887055e-01
   9.9058594e-02
  -2.6124004e-02
   2.8696326e-01
  -1.1268217e+00
   1.2169266e-01
  -2.4585162e+00
  -8.4876348e-01
   6.9366883e-02
   3.1589054e-02
  -6.8314940e-01
  -1.6519282e-01
  -1.5375998e+00
   2.7664072e-01
  -7.5282667e-03
  -4.3961012e-01
   1.1687984e-01
  -4.6827028e-03
   6.8722857e-01
   5.5365276e-02
  -5.3051482e-03
   1.1727541e-01
  -5.8670745e-02
   1.6468758e-03
   2.8043759e-01
  -2.3482654e-02
   1.0292459e-03
   5.8090865e-01
   1.5275096e-02
   4.6390566e-06
   2.9716475e-01
  -5.5240998e-02
   3.7690191e-03
  -4.9931443e-01
   1.1422982e-01
  -7.1962116e-03
  -2.8077785e-02
  -4.2685798e-02
   1.6882908e-03
  -7.2420065e-01
   1.0381990e-01
  -2.7175780e-03
   2.4888706e+00
  -4.6918560e-01
   2.2063173e-02
  -4.2321343e-01
  -4.6178409e-02
   5.5716475e-05
  -7.6421009e-02
   5.4798588e-02
  -8.0282821e-03
  -3.1997677e-01
   4.2896768e-02
  -3.9351917e-03
  -6.2664583e-01
   2.5988188e-02
   8.3481432e-04
   9.8870073e-01
  -3.6796209e-01
   2.1589911e-02
  -5.2003701e-01
   1.6683679e-01
  -5.4066373e-03
  -7.6310335e-01
   8.6070571e-02
  -2.0604366e-03
   5.9262359e-01
  -6.3899943e-02
   2.8421160e-03
   5.4076356e-01
   5.1585141e-02
  -3.0094881e-03
  -1.7738603e+00
  -4.6874421e+00
   1.7483166e+00
  -4.0107301e+00
   1.1491679e+01
   3.0975528e+00
   2.8923339e+00
  -5.6606395e+00
   3.7451326e+00
  -4.2595741e+00
   3.7241452e+00
  -1.1143505e+00
  -9.8300643e-01
   4.5110324e+00
  -4.9512667e+00
   1.8468731e+00
  -6.2848905e-01
  -1.2776795e+00
  -1.6480284e+00
   1.7990750e-01
  -5.5010008e-03
  -4.0600297e-01
   7.7729452e-01
   3.3211245e-02
   1.0723487e-01
  -9.2351930e-01
   2.3234307e+00
  -1.7144898e+00
  -1.4324747e+00
   1.4907543e+00
   2.4583845e+00
  -3.6728296e+00
  -3.1412272e+00
   1.2206283e+00
   8.2939992e-01
  -1.5852606e+00
   1.5728065e+00
   3.8681659e-01
  -2.4695685e+00
  -1.4616415e+00
   1.4803940e+00
   5.7385193e-01
  -5.4938433e-01
  -1.2378958e+00
  -3.5553483e+00
  -1.1776376e+00
  -2.4684122e-01
  -2.0538729e+00
   1.6865086e-01
  -8.0999683e-01
  -1.1529069e+00
  -2.0519954e+00
   4.4785829e-01
   6.4037735e-01
   8.9146149e-02
  -3.9514013e-01
  -1.6982044e+00
   1.6905364e+00
  -1.4527527e+00
  -3.6699733e+00
   1.3608981e-01
  -1.1155779e+00
  -2.0968036e+00
  -2.6734507e+00
  -7.9137014e-01
   2.3814329e+00
  -1.9396011e+00
   2.8472051e-01
   1.0228593e-01
  -1.8431295e+00
   3.7982423e-01
   1.0179070e+00
  -2.3767873e+00
  -1.4209100e-04
   1.4432588e+00
  -8.4280730e-01
  -3.9884573e+00
   1.7914642e+00
  -1.3602901e-01
  -4.6645354e+00
   3.9942531e-01
   7.1119238e-01
  -8.9109428e-01
  -3.0768532e+00
  -1.4696849e+00
  -1.3551860e+00
   5.1038298e-01
  -7.9402569e-01
  -8.4120304e-01
   9.2808863e-02
  -2.3692347e+00
  -5.4735088e-01
   8.7534504e-02
  -6.5510823e-01
  -4.5436892e-01
   8.9856522e-02
  -5.0773544e-01
  -1.6419351e+00
   1.5066032e-01
  -1.5518462e+00
  -1.6223078e+00
   1.6416050e-01
   5.4410155e+00
   1.7019552e+00
   6.5067280e-02
   9.6910344e-01
  -4.3448060e-01
   2.6363870e-02
  -2.1812973e-01
   1.8720018e-02
  -4.8370304e-04
   5.7430270e-01
   8.4861899e-02
  -1.3569036e-02
   4.1996144e-01
  -2.2357069e-01
   1.4114311e-02
   3.0715628e-01
  -3.4931891e-03
  -3.9441802e-04
  -7.2437016e-01
   1.0024679e-01
  -6.1601141e-03
   4.3268565e-01
   7.0700295e-02
  -3.9973514e-03
  -1.0326995e+00
   1.4960695e-01
  -7.5547355e-03
  -1.0480001e+00
   1.8472865e-01
  -8.3431202e-03
   1.1292391e+00
  -1.5695713e-01
   7.5939413e-03
   2.0254247e-01
  -6.3549501e-02
   6.4996459e-03
   1.4809855e+00
  -3.3981353e-01
   1.2851541e-02
  -7.5049454e-01
   1.0251907e-01
  -7.8061868e-03
   9.0312038e-01
  -1.4321209e-01
   5.3215860e-03
   3.3361657e-01
  -6.5253731e-02
   2.9588754e-03
   3.2811398e-01
  -2.5170820e-01
   2.8693619e-02
  -5.6689374e-01
   3.5499573e-01
  -2.8515941e-02
   6.9429044e-01
  -3.8636078e-02
   1.0388145e-03
  -4.7785393e-01
   1.3221299e-01
  -8.4337852e-03
  -7.6824719e-02
  -4.4469823e-02
   5.1538076e-03
   5.9765254e+00
   2.1456495e+00
   3.6046811e+00
  -5.7160516e-01
  -2.4423667e+00
  -1.3302132e+01
  -5.6112788e+00
   7.2281085e+00
  -2.9000675e+00
   2.1632270e+00
  -2.7887179e+00
   6.3811067e-01
   1.6102535e+00
   1.2187035e+00
  -2.6359573e+00
  -1.7902533e+00
  -2.2422562e-03
  -7.1774124e-01
